digraph Tree {
node [shape=box, fontname="helvetica"] ;
edge [fontname="helvetica"] ;
0 [label="x[4] <= 1.5\ngini = 0.414\nsamples = 277\nvalue = [196, 81]"] ;
1 [label="x[1] <= 3.5\ngini = 0.307\nsamples = 195\nvalue = [158, 37]"] ;
0 -> 1 [labeldistance=2.5, labelangle=45, headlabel="True"] ;
2 [label="x[9] <= 0.5\ngini = 0.124\nsamples = 60\nvalue = [56, 4]"] ;
1 -> 2 ;
3 [label="gini = 0.0\nsamples = 33\nvalue = [33, 0]"] ;
2 -> 3 ;
4 [label="x[1] <= 2.5\ngini = 0.252\nsamples = 27\nvalue = [23, 4]"] ;
2 -> 4 ;
5 [label="x[10] <= 0.5\ngini = 0.105\nsamples = 18\nvalue = [17, 1]"] ;
4 -> 5 ;
6 [label="gini = 0.0\nsamples = 16\nvalue = [16, 0]"] ;
5 -> 6 ;
7 [label="gini = 0.5\nsamples = 2\nvalue = [1, 1]"] ;
5 -> 7 ;
8 [label="x[12] <= 0.5\ngini = 0.444\nsamples = 9\nvalue = [6, 3]"] ;
4 -> 8 ;
9 [label="x[11] <= 0.5\ngini = 0.375\nsamples = 8\nvalue = [6, 2]"] ;
8 -> 9 ;
10 [label="gini = 0.0\nsamples = 1\nvalue = [1, 0]"] ;
9 -> 10 ;
11 [label="x[5] <= 0.5\ngini = 0.408\nsamples = 7\nvalue = [5, 2]"] ;
9 -> 11 ;
12 [label="x[0] <= 2.5\ngini = 0.32\nsamples = 5\nvalue = [4, 1]"] ;
11 -> 12 ;
13 [label="gini = 0.0\nsamples = 3\nvalue = [3, 0]"] ;
12 -> 13 ;
14 [label="x[4] <= 0.5\ngini = 0.5\nsamples = 2\nvalue = [1, 1]"] ;
12 -> 14 ;
15 [label="gini = 0.0\nsamples = 1\nvalue = [1, 0]"] ;
14 -> 15 ;
16 [label="gini = 0.0\nsamples = 1\nvalue = [0, 1]"] ;
14 -> 16 ;
17 [label="x[4] <= 0.5\ngini = 0.5\nsamples = 2\nvalue = [1, 1]"] ;
11 -> 17 ;
18 [label="gini = 0.0\nsamples = 1\nvalue = [0, 1]"] ;
17 -> 18 ;
19 [label="gini = 0.0\nsamples = 1\nvalue = [1, 0]"] ;
17 -> 19 ;
20 [label="gini = 0.0\nsamples = 1\nvalue = [0, 1]"] ;
8 -> 20 ;
21 [label="x[6] <= 0.5\ngini = 0.369\nsamples = 135\nvalue = [102, 33]"] ;
1 -> 21 ;
22 [label="x[2] <= 2.5\ngini = 0.331\nsamples = 105\nvalue = [83, 22]"] ;
21 -> 22 ;
23 [label="x[13] <= 0.5\ngini = 0.322\nsamples = 104\nvalue = [83, 21]"] ;
22 -> 23 ;
24 [label="x[2] <= 1.5\ngini = 0.344\nsamples = 95\nvalue = [74, 21]"] ;
23 -> 24 ;
25 [label="x[0] <= 1.5\ngini = 0.355\nsamples = 91\nvalue = [70, 21]"] ;
24 -> 25 ;
26 [label="x[12] <= 0.5\ngini = 0.463\nsamples = 11\nvalue = [7, 4]"] ;
25 -> 26 ;
27 [label="x[3] <= 0.5\ngini = 0.245\nsamples = 7\nvalue = [6, 1]"] ;
26 -> 27 ;
28 [label="gini = 0.0\nsamples = 6\nvalue = [6, 0]"] ;
27 -> 28 ;
29 [label="gini = 0.0\nsamples = 1\nvalue = [0, 1]"] ;
27 -> 29 ;
30 [label="x[4] <= 0.5\ngini = 0.375\nsamples = 4\nvalue = [1, 3]"] ;
26 -> 30 ;
31 [label="gini = 0.0\nsamples = 2\nvalue = [0, 2]"] ;
30 -> 31 ;
32 [label="gini = 0.5\nsamples = 2\nvalue = [1, 1]"] ;
30 -> 32 ;
33 [label="x[14] <= 0.5\ngini = 0.335\nsamples = 80\nvalue = [63, 17]"] ;
25 -> 33 ;
34 [label="x[5] <= 0.5\ngini = 0.306\nsamples = 69\nvalue = [56, 13]"] ;
33 -> 34 ;
35 [label="x[0] <= 3.5\ngini = 0.202\nsamples = 35\nvalue = [31, 4]"] ;
34 -> 35 ;
36 [label="x[1] <= 4.5\ngini = 0.26\nsamples = 26\nvalue = [22, 4]"] ;
35 -> 36 ;
37 [label="x[9] <= 0.5\ngini = 0.408\nsamples = 7\nvalue = [5, 2]"] ;
36 -> 37 ;
38 [label="gini = 0.0\nsamples = 1\nvalue = [0, 1]"] ;
37 -> 38 ;
39 [label="x[11] <= 0.5\ngini = 0.278\nsamples = 6\nvalue = [5, 1]"] ;
37 -> 39 ;
40 [label="gini = 0.0\nsamples = 2\nvalue = [2, 0]"] ;
39 -> 40 ;
41 [label="x[0] <= 2.5\ngini = 0.375\nsamples = 4\nvalue = [3, 1]"] ;
39 -> 41 ;
42 [label="gini = 0.5\nsamples = 2\nvalue = [1, 1]"] ;
41 -> 42 ;
43 [label="gini = 0.0\nsamples = 2\nvalue = [2, 0]"] ;
41 -> 43 ;
44 [label="x[1] <= 6.5\ngini = 0.188\nsamples = 19\nvalue = [17, 2]"] ;
36 -> 44 ;
45 [label="gini = 0.0\nsamples = 11\nvalue = [11, 0]"] ;
44 -> 45 ;
46 [label="x[11] <= 0.5\ngini = 0.375\nsamples = 8\nvalue = [6, 2]"] ;
44 -> 46 ;
47 [label="gini = 0.0\nsamples = 2\nvalue = [2, 0]"] ;
46 -> 47 ;
48 [label="x[2] <= 0.5\ngini = 0.444\nsamples = 6\nvalue = [4, 2]"] ;
46 -> 48 ;
49 [label="x[1] <= 9.0\ngini = 0.48\nsamples = 5\nvalue = [3, 2]"] ;
48 -> 49 ;
50 [label="x[9] <= 0.5\ngini = 0.5\nsamples = 4\nvalue = [2, 2]"] ;
49 -> 50 ;
51 [label="x[1] <= 7.5\ngini = 0.5\nsamples = 2\nvalue = [1, 1]"] ;
50 -> 51 ;
52 [label="gini = 0.0\nsamples = 1\nvalue = [0, 1]"] ;
51 -> 52 ;
53 [label="gini = 0.0\nsamples = 1\nvalue = [1, 0]"] ;
51 -> 53 ;
54 [label="x[1] <= 7.5\ngini = 0.5\nsamples = 2\nvalue = [1, 1]"] ;
50 -> 54 ;
55 [label="gini = 0.0\nsamples = 1\nvalue = [1, 0]"] ;
54 -> 55 ;
56 [label="gini = 0.0\nsamples = 1\nvalue = [0, 1]"] ;
54 -> 56 ;
57 [label="gini = 0.0\nsamples = 1\nvalue = [1, 0]"] ;
49 -> 57 ;
58 [label="gini = 0.0\nsamples = 1\nvalue = [1, 0]"] ;
48 -> 58 ;
59 [label="gini = 0.0\nsamples = 9\nvalue = [9, 0]"] ;
35 -> 59 ;
60 [label="x[3] <= 0.5\ngini = 0.389\nsamples = 34\nvalue = [25, 9]"] ;
34 -> 60 ;
61 [label="x[0] <= 4.5\ngini = 0.412\nsamples = 31\nvalue = [22, 9]"] ;
60 -> 61 ;
62 [label="x[1] <= 6.5\ngini = 0.42\nsamples = 30\nvalue = [21, 9]"] ;
61 -> 62 ;
63 [label="x[4] <= 0.5\ngini = 0.403\nsamples = 25\nvalue = [18.0, 7.0]"] ;
62 -> 63 ;
64 [label="x[12] <= 0.5\ngini = 0.346\nsamples = 9\nvalue = [7, 2]"] ;
63 -> 64 ;
65 [label="gini = 0.0\nsamples = 4\nvalue = [4, 0]"] ;
64 -> 65 ;
66 [label="x[1] <= 5.5\ngini = 0.48\nsamples = 5\nvalue = [3, 2]"] ;
64 -> 66 ;
67 [label="x[9] <= 0.5\ngini = 0.444\nsamples = 3\nvalue = [1, 2]"] ;
66 -> 67 ;
68 [label="gini = 0.0\nsamples = 1\nvalue = [0, 1]"] ;
67 -> 68 ;
69 [label="gini = 0.5\nsamples = 2\nvalue = [1, 1]"] ;
67 -> 69 ;
70 [label="gini = 0.0\nsamples = 2\nvalue = [2, 0]"] ;
66 -> 70 ;
71 [label="x[1] <= 5.5\ngini = 0.43\nsamples = 16\nvalue = [11, 5]"] ;
63 -> 71 ;
72 [label="x[12] <= 0.5\ngini = 0.391\nsamples = 15\nvalue = [11, 4]"] ;
71 -> 72 ;
73 [label="x[2] <= 0.5\ngini = 0.49\nsamples = 7\nvalue = [4, 3]"] ;
72 -> 73 ;
74 [label="x[1] <= 4.5\ngini = 0.5\nsamples = 6\nvalue = [3, 3]"] ;
73 -> 74 ;
75 [label="gini = 0.0\nsamples = 1\nvalue = [0, 1]"] ;
74 -> 75 ;
76 [label="x[9] <= 0.5\ngini = 0.48\nsamples = 5\nvalue = [3, 2]"] ;
74 -> 76 ;
77 [label="gini = 0.0\nsamples = 1\nvalue = [1, 0]"] ;
76 -> 77 ;
78 [label="x[11] <= 0.5\ngini = 0.5\nsamples = 4\nvalue = [2, 2]"] ;
76 -> 78 ;
79 [label="gini = 0.0\nsamples = 1\nvalue = [1, 0]"] ;
78 -> 79 ;
80 [label="gini = 0.444\nsamples = 3\nvalue = [1, 2]"] ;
78 -> 80 ;
81 [label="gini = 0.0\nsamples = 1\nvalue = [1, 0]"] ;
73 -> 81 ;
82 [label="x[7] <= 0.5\ngini = 0.219\nsamples = 8\nvalue = [7, 1]"] ;
72 -> 82 ;
83 [label="gini = 0.0\nsamples = 4\nvalue = [4, 0]"] ;
82 -> 83 ;
84 [label="x[0] <= 2.5\ngini = 0.375\nsamples = 4\nvalue = [3, 1]"] ;
82 -> 84 ;
85 [label="gini = 0.0\nsamples = 1\nvalue = [0, 1]"] ;
84 -> 85 ;
86 [label="gini = 0.0\nsamples = 3\nvalue = [3, 0]"] ;
84 -> 86 ;
87 [label="gini = 0.0\nsamples = 1\nvalue = [0, 1]"] ;
71 -> 87 ;
88 [label="x[9] <= 0.5\ngini = 0.48\nsamples = 5\nvalue = [3, 2]"] ;
62 -> 88 ;
89 [label="gini = 0.0\nsamples = 1\nvalue = [0, 1]"] ;
88 -> 89 ;
90 [label="x[4] <= 0.5\ngini = 0.375\nsamples = 4\nvalue = [3, 1]"] ;
88 -> 90 ;
91 [label="x[1] <= 7.5\ngini = 0.5\nsamples = 2\nvalue = [1, 1]"] ;
90 -> 91 ;
92 [label="gini = 0.0\nsamples = 1\nvalue = [0, 1]"] ;
91 -> 92 ;
93 [label="gini = 0.0\nsamples = 1\nvalue = [1, 0]"] ;
91 -> 93 ;
94 [label="gini = 0.0\nsamples = 2\nvalue = [2, 0]"] ;
90 -> 94 ;
95 [label="gini = 0.0\nsamples = 1\nvalue = [1, 0]"] ;
61 -> 95 ;
96 [label="gini = 0.0\nsamples = 3\nvalue = [3, 0]"] ;
60 -> 96 ;
97 [label="x[4] <= 0.5\ngini = 0.463\nsamples = 11\nvalue = [7, 4]"] ;
33 -> 97 ;
98 [label="gini = 0.0\nsamples = 5\nvalue = [5, 0]"] ;
97 -> 98 ;
99 [label="x[0] <= 2.5\ngini = 0.444\nsamples = 6\nvalue = [2, 4]"] ;
97 -> 99 ;
100 [label="x[3] <= 0.5\ngini = 0.444\nsamples = 3\nvalue = [2, 1]"] ;
99 -> 100 ;
101 [label="gini = 0.0\nsamples = 2\nvalue = [2, 0]"] ;
100 -> 101 ;
102 [label="gini = 0.0\nsamples = 1\nvalue = [0, 1]"] ;
100 -> 102 ;
103 [label="gini = 0.0\nsamples = 3\nvalue = [0, 3]"] ;
99 -> 103 ;
104 [label="gini = 0.0\nsamples = 4\nvalue = [4, 0]"] ;
24 -> 104 ;
105 [label="gini = 0.0\nsamples = 9\nvalue = [9, 0]"] ;
23 -> 105 ;
106 [label="gini = 0.0\nsamples = 1\nvalue = [0, 1]"] ;
22 -> 106 ;
107 [label="x[12] <= 0.5\ngini = 0.464\nsamples = 30\nvalue = [19, 11]"] ;
21 -> 107 ;
108 [label="x[9] <= 0.5\ngini = 0.499\nsamples = 19\nvalue = [9, 10]"] ;
107 -> 108 ;
109 [label="x[11] <= 0.5\ngini = 0.278\nsamples = 6\nvalue = [1, 5]"] ;
108 -> 109 ;
110 [label="gini = 0.0\nsamples = 4\nvalue = [0, 4]"] ;
109 -> 110 ;
111 [label="x[1] <= 5.0\ngini = 0.5\nsamples = 2\nvalue = [1, 1]"] ;
109 -> 111 ;
112 [label="gini = 0.0\nsamples = 1\nvalue = [0, 1]"] ;
111 -> 112 ;
113 [label="gini = 0.0\nsamples = 1\nvalue = [1, 0]"] ;
111 -> 113 ;
114 [label="x[1] <= 9.5\ngini = 0.473\nsamples = 13\nvalue = [8, 5]"] ;
108 -> 114 ;
115 [label="x[1] <= 4.5\ngini = 0.444\nsamples = 12\nvalue = [8, 4]"] ;
114 -> 115 ;
116 [label="x[3] <= 0.5\ngini = 0.444\nsamples = 3\nvalue = [1, 2]"] ;
115 -> 116 ;
117 [label="gini = 0.0\nsamples = 1\nvalue = [1, 0]"] ;
116 -> 117 ;
118 [label="gini = 0.0\nsamples = 2\nvalue = [0, 2]"] ;
116 -> 118 ;
119 [label="x[3] <= 0.5\ngini = 0.346\nsamples = 9\nvalue = [7, 2]"] ;
115 -> 119 ;
120 [label="x[5] <= 0.5\ngini = 0.444\nsamples = 6\nvalue = [4, 2]"] ;
119 -> 120 ;
121 [label="x[1] <= 7.0\ngini = 0.5\nsamples = 4\nvalue = [2, 2]"] ;
120 -> 121 ;
122 [label="gini = 0.0\nsamples = 2\nvalue = [0, 2]"] ;
121 -> 122 ;
123 [label="gini = 0.0\nsamples = 2\nvalue = [2, 0]"] ;
121 -> 123 ;
124 [label="gini = 0.0\nsamples = 2\nvalue = [2, 0]"] ;
120 -> 124 ;
125 [label="gini = 0.0\nsamples = 3\nvalue = [3, 0]"] ;
119 -> 125 ;
126 [label="gini = 0.0\nsamples = 1\nvalue = [0, 1]"] ;
114 -> 126 ;
127 [label="x[0] <= 1.5\ngini = 0.165\nsamples = 11\nvalue = [10, 1]"] ;
107 -> 127 ;
128 [label="x[3] <= 0.5\ngini = 0.444\nsamples = 3\nvalue = [2, 1]"] ;
127 -> 128 ;
129 [label="gini = 0.0\nsamples = 1\nvalue = [0, 1]"] ;
128 -> 129 ;
130 [label="gini = 0.0\nsamples = 2\nvalue = [2, 0]"] ;
128 -> 130 ;
131 [label="gini = 0.0\nsamples = 8\nvalue = [8, 0]"] ;
127 -> 131 ;
132 [label="x[2] <= 0.5\ngini = 0.497\nsamples = 82\nvalue = [38, 44]"] ;
0 -> 132 [labeldistance=2.5, labelangle=-45, headlabel="False"] ;
133 [label="x[9] <= 0.5\ngini = 0.462\nsamples = 47\nvalue = [30, 17]"] ;
132 -> 133 ;
134 [label="x[0] <= 3.5\ngini = 0.365\nsamples = 25\nvalue = [19, 6]"] ;
133 -> 134 ;
135 [label="gini = 0.0\nsamples = 14\nvalue = [14, 0]"] ;
134 -> 135 ;
136 [label="x[1] <= 3.5\ngini = 0.496\nsamples = 11\nvalue = [5, 6]"] ;
134 -> 136 ;
137 [label="gini = 0.0\nsamples = 1\nvalue = [1, 0]"] ;
136 -> 137 ;
138 [label="x[6] <= 0.5\ngini = 0.48\nsamples = 10\nvalue = [4, 6]"] ;
136 -> 138 ;
139 [label="x[1] <= 8.0\ngini = 0.5\nsamples = 8\nvalue = [4, 4]"] ;
138 -> 139 ;
140 [label="x[10] <= 0.5\ngini = 0.49\nsamples = 7\nvalue = [4, 3]"] ;
139 -> 140 ;
141 [label="x[0] <= 4.5\ngini = 0.444\nsamples = 6\nvalue = [4, 2]"] ;
140 -> 141 ;
142 [label="x[1] <= 4.5\ngini = 0.48\nsamples = 5\nvalue = [3, 2]"] ;
141 -> 142 ;
143 [label="gini = 0.0\nsamples = 1\nvalue = [0, 1]"] ;
142 -> 143 ;
144 [label="x[5] <= 0.5\ngini = 0.375\nsamples = 4\nvalue = [3, 1]"] ;
142 -> 144 ;
145 [label="x[12] <= 0.5\ngini = 0.5\nsamples = 2\nvalue = [1, 1]"] ;
144 -> 145 ;
146 [label="gini = 0.0\nsamples = 1\nvalue = [1, 0]"] ;
145 -> 146 ;
147 [label="gini = 0.0\nsamples = 1\nvalue = [0, 1]"] ;
145 -> 147 ;
148 [label="gini = 0.0\nsamples = 2\nvalue = [2, 0]"] ;
144 -> 148 ;
149 [label="gini = 0.0\nsamples = 1\nvalue = [1, 0]"] ;
141 -> 149 ;
150 [label="gini = 0.0\nsamples = 1\nvalue = [0, 1]"] ;
140 -> 150 ;
151 [label="gini = 0.0\nsamples = 1\nvalue = [0, 1]"] ;
139 -> 151 ;
152 [label="gini = 0.0\nsamples = 2\nvalue = [0, 2]"] ;
138 -> 152 ;
153 [label="x[14] <= 0.5\ngini = 0.5\nsamples = 22\nvalue = [11, 11]"] ;
133 -> 153 ;
154 [label="x[10] <= 0.5\ngini = 0.484\nsamples = 17\nvalue = [10, 7]"] ;
153 -> 154 ;
155 [label="x[0] <= 1.5\ngini = 0.498\nsamples = 15\nvalue = [8, 7]"] ;
154 -> 155 ;
156 [label="x[1] <= 6.5\ngini = 0.375\nsamples = 4\nvalue = [1, 3]"] ;
155 -> 156 ;
157 [label="x[11] <= 0.5\ngini = 0.5\nsamples = 2\nvalue = [1, 1]"] ;
156 -> 157 ;
158 [label="gini = 0.0\nsamples = 1\nvalue = [0, 1]"] ;
157 -> 158 ;
159 [label="gini = 0.0\nsamples = 1\nvalue = [1, 0]"] ;
157 -> 159 ;
160 [label="gini = 0.0\nsamples = 2\nvalue = [0, 2]"] ;
156 -> 160 ;
161 [label="x[1] <= 6.5\ngini = 0.463\nsamples = 11\nvalue = [7, 4]"] ;
155 -> 161 ;
162 [label="x[3] <= 0.5\ngini = 0.494\nsamples = 9\nvalue = [5, 4]"] ;
161 -> 162 ;
163 [label="x[1] <= 4.5\ngini = 0.469\nsamples = 8\nvalue = [5, 3]"] ;
162 -> 163 ;
164 [label="gini = 0.0\nsamples = 2\nvalue = [2, 0]"] ;
163 -> 164 ;
165 [label="x[1] <= 5.5\ngini = 0.5\nsamples = 6\nvalue = [3, 3]"] ;
163 -> 165 ;
166 [label="x[0] <= 2.5\ngini = 0.444\nsamples = 3\nvalue = [1, 2]"] ;
165 -> 166 ;
167 [label="x[6] <= 0.5\ngini = 0.5\nsamples = 2\nvalue = [1, 1]"] ;
166 -> 167 ;
168 [label="gini = 0.0\nsamples = 1\nvalue = [0, 1]"] ;
167 -> 168 ;
169 [label="gini = 0.0\nsamples = 1\nvalue = [1, 0]"] ;
167 -> 169 ;
170 [label="gini = 0.0\nsamples = 1\nvalue = [0, 1]"] ;
166 -> 170 ;
171 [label="x[5] <= 0.5\ngini = 0.444\nsamples = 3\nvalue = [2, 1]"] ;
165 -> 171 ;
172 [label="gini = 0.0\nsamples = 2\nvalue = [2, 0]"] ;
171 -> 172 ;
173 [label="gini = 0.0\nsamples = 1\nvalue = [0, 1]"] ;
171 -> 173 ;
174 [label="gini = 0.0\nsamples = 1\nvalue = [0, 1]"] ;
162 -> 174 ;
175 [label="gini = 0.0\nsamples = 2\nvalue = [2, 0]"] ;
161 -> 175 ;
176 [label="gini = 0.0\nsamples = 2\nvalue = [2, 0]"] ;
154 -> 176 ;
177 [label="x[5] <= 0.5\ngini = 0.32\nsamples = 5\nvalue = [1, 4]"] ;
153 -> 177 ;
178 [label="gini = 0.0\nsamples = 2\nvalue = [0, 2]"] ;
177 -> 178 ;
179 [label="x[3] <= 0.5\ngini = 0.444\nsamples = 3\nvalue = [1, 2]"] ;
177 -> 179 ;
180 [label="gini = 0.5\nsamples = 2\nvalue = [1, 1]"] ;
179 -> 180 ;
181 [label="gini = 0.0\nsamples = 1\nvalue = [0, 1]"] ;
179 -> 181 ;
182 [label="x[10] <= 0.5\ngini = 0.353\nsamples = 35\nvalue = [8, 27]"] ;
132 -> 182 ;
183 [label="x[5] <= 0.5\ngini = 0.327\nsamples = 34\nvalue = [7, 27]"] ;
182 -> 183 ;
184 [label="x[6] <= 0.5\ngini = 0.172\nsamples = 21\nvalue = [2, 19]"] ;
183 -> 184 ;
185 [label="x[0] <= 2.5\ngini = 0.346\nsamples = 9\nvalue = [2, 7]"] ;
184 -> 185 ;
186 [label="gini = 0.0\nsamples = 4\nvalue = [0, 4]"] ;
185 -> 186 ;
187 [label="x[2] <= 3.5\ngini = 0.48\nsamples = 5\nvalue = [2, 3]"] ;
185 -> 187 ;
188 [label="x[2] <= 1.5\ngini = 0.375\nsamples = 4\nvalue = [1, 3]"] ;
187 -> 188 ;
189 [label="x[0] <= 3.5\ngini = 0.5\nsamples = 2\nvalue = [1, 1]"] ;
188 -> 189 ;
190 [label="gini = 0.0\nsamples = 1\nvalue = [0, 1]"] ;
189 -> 190 ;
191 [label="gini = 0.0\nsamples = 1\nvalue = [1, 0]"] ;
189 -> 191 ;
192 [label="gini = 0.0\nsamples = 2\nvalue = [0, 2]"] ;
188 -> 192 ;
193 [label="gini = 0.0\nsamples = 1\nvalue = [1, 0]"] ;
187 -> 193 ;
194 [label="gini = 0.0\nsamples = 12\nvalue = [0, 12]"] ;
184 -> 194 ;
195 [label="x[1] <= 3.5\ngini = 0.473\nsamples = 13\nvalue = [5, 8]"] ;
183 -> 195 ;
196 [label="gini = 0.0\nsamples = 1\nvalue = [1, 0]"] ;
195 -> 196 ;
197 [label="x[1] <= 7.5\ngini = 0.444\nsamples = 12\nvalue = [4, 8]"] ;
195 -> 197 ;
198 [label="x[1] <= 5.5\ngini = 0.346\nsamples = 9\nvalue = [2, 7]"] ;
197 -> 198 ;
199 [label="x[0] <= 2.5\ngini = 0.48\nsamples = 5\nvalue = [2, 3]"] ;
198 -> 199 ;
200 [label="gini = 0.0\nsamples = 2\nvalue = [0, 2]"] ;
199 -> 200 ;
201 [label="x[12] <= 0.5\ngini = 0.444\nsamples = 3\nvalue = [2, 1]"] ;
199 -> 201 ;
202 [label="gini = 0.0\nsamples = 1\nvalue = [0, 1]"] ;
201 -> 202 ;
203 [label="gini = 0.0\nsamples = 2\nvalue = [2, 0]"] ;
201 -> 203 ;
204 [label="gini = 0.0\nsamples = 4\nvalue = [0, 4]"] ;
198 -> 204 ;
205 [label="x[6] <= 0.5\ngini = 0.444\nsamples = 3\nvalue = [2, 1]"] ;
197 -> 205 ;
206 [label="gini = 0.0\nsamples = 1\nvalue = [0, 1]"] ;
205 -> 206 ;
207 [label="gini = 0.0\nsamples = 2\nvalue = [2, 0]"] ;
205 -> 207 ;
208 [label="gini = 0.0\nsamples = 1\nvalue = [1, 0]"] ;
182 -> 208 ;
}
